solver_type L2R_L2LOSS_SVC_DUAL
nr_class 2
label 1 -1
nr_feature 54
bias -1
w
4.981905452902363 
-0.00325609803831746 
-0.2748168229148317 
-0.790939653641539 
-0.2779114226425459 
-0.476261156400416 
-0.408286197063102 
-1.752586516619472 
0.01495975055879268 
0.1669855316188731 
-0.3743314958614535 
-0.570983772719483 
-0.2730300317931082 
1.645114133561933 
1.209480758690742 
1.522541140309429 
1.481223891106648 
0.806210223364169 
1.111960118695172 
-0.07647260891693489 
-0.7962417432591048 
-0.3621925735002483 
0.004557844769241033 
0.03435948686697966 
-0.3230263598941607 
-0.5613418698454933 
-0.4222811011770815 
1.592352077639751 
0.2439504345776138 
-0.1295762484978079 
0.6340290470114597 
-0.01370713767250178 
-0.05884679814961861 
-0.1082857010313552 
0.5445031059495476 
0.02136715084064419 
-0.0330631683280543 
-0.4651363145813635 
-0.330234582271321 
-0.612914635539821 
-1.101749604840765 
-0.6755334963536717 
-0.3927644888976597 
-0.3443385031614479 
-0.4434156259905617 
-0.6026529628351457 
-0.5126575580497719 
-0.714323686002832 
0.1863096419229161 
-0.3507927534096496 
0.07253103169115795 
0.2116434358010393 
0.2096259656358575 
-0.02832699947819496 
